{"levels":[{"inputs":[0.13647335213728828,0,0],"outputs":[1,1,1,1,1,0],"biases":[0.01398004892734217,-0.08274692922386173,-0.8690801546620879,-0.4132320270323644,-0.039542472025127284,0.1273380202805654],"weights":[[0.41660428352197687,-0.507091592448822,0.021762351280414094,-0.006212892181094831,0.5683433366083297,-0.7774533158385302],[0.1039544419202415,-0.09291469590139229,-0.056873127374191146,0.3538383373464052,-0.10835653400873069,0.2710543868130041],[-0.1703629981123062,0.047392045410827865,-0.15301386315804588,0.17987800318482622,0.06793000816836342,0.3045656868416814]]},{"inputs":[1,1,1,1,1,0],"outputs":[1,1,0,0],"biases":[-0.5689898545873171,-0.48456922769687366,-0.4316674593636805,0.3836589353302842],"weights":[[0.553070987990411,-0.18272725193531586,0.5598175945002951,-0.19320487096996147],[0.17205130458601325,0.4662529359908409,-0.5734891556256272,-0.5647801072725611],[0.25368715369885314,-0.20734478646465304,0.2630254556676752,-0.4552299834227241],[-0.2113006091583436,-0.026085987988881787,-0.5447299897675962,-0.13149171796451725],[-0.10913720371563557,-0.33255938052158923,-0.42438736682792044,-0.061612331358586236],[-0.6463999889760588,0.34942266169157854,0.215939340372738,-0.4053624597527539]]}]}